Language model created by QuickLM on Sun Nov 15 17:29:29 EST 2020
Copyright (c) 1996-2010 Carnegie Mellon University and Alexander I. Rudnicky

The model is in standard ARPA format, designed by Doug Paul while he was at MITRE.

The code that was used to produce this language model is available in Open Source.
Please visit http://www.speech.cs.cmu.edu/tools/ for more information

The (fixed) discount mass is 0.5. The backoffs are computed using the ratio method.
This model based on a corpus of 95 sentences and 202 words

\data\
ngram 1=202
ngram 2=347
ngram 3=309

\1-grams:
-3.0060 40 -0.2583
-3.0060 505 -0.2583
-1.0283 </s> -0.3010
-1.0283 <s> -0.2419
-2.0518 A -0.2963
-3.0060 ABOUT -0.2967
-3.0060 ADOLESCENT -0.2583
-3.0060 AFTERNOON -0.2583
-3.0060 AGAINST -0.2583
-3.0060 ALIVE -0.2583
-3.0060 ALL -0.2583
-3.0060 ALWAYS -0.3006
-3.0060 AMIGOS -0.3006
-3.0060 ANOS -0.2583
-3.0060 ARABELLA -0.2583
-3.0060 ARCADE -0.3006
-2.7050 ARCTIC -0.3002
-3.0060 ARE -0.3006
-2.2279 ARTIST -0.2555
-2.7050 AT -0.2976
-3.0060 AUDIOSLAVE -0.2583
-3.0060 BACKWARDS -0.2583
-3.0060 BAD -0.3006
-3.0060 BALACLAVA -0.2583
-2.7050 BE -0.3002
-3.0060 BET -0.2967
-3.0060 BEWARE -0.2583
-3.0060 BIT -0.3006
-2.7050 BLACK -0.2578
-3.0060 BLUE -0.3002
-3.0060 BOT -0.2583
-3.0060 BRIANSTORM -0.2583
-3.0060 BRICKS -0.2583
-3.0060 BULLS -0.3002
-2.7050 BUM -0.2583
-2.5289 BUT -0.2959
-3.0060 BUT... -0.2583
-2.2279 BY -0.2531
-3.0060 CALL -0.2980
-3.0060 CEM -0.3006
-3.0060 CERTAIN -0.3006
-3.0060 CHILDISH -0.3006
-3.0060 CIRCUS -0.2583
-3.0060 CONTINUE -0.2583
-3.0060 COULDN'T -0.3002
-3.0060 CURRENTLY -0.3002
-2.7050 D -0.2950
-3.0060 DANCEFLOOR -0.2583
-3.0060 DANCING -0.3006
-3.0060 DANGEROUS -0.2583
-2.5289 DO -0.2959
-3.0060 DOORS -0.3006
-2.7050 DOWN -0.2583
-3.0060 DREAMZ -0.2583
-3.0060 ENEMIES -0.2583
-3.0060 FAKE -0.3006
-2.7050 FAVOUR -0.2555
-3.0060 FIRE -0.2583
-3.0060 FIRESIDE -0.2583
-2.7050 FIVE -0.2578
-3.0060 FLUORESCENT -0.3006
-2.5289 FOR -0.2963
-3.0060 FRANCISCO -0.2583
-3.0060 FRIENDS -0.3006
-2.7050 FROM -0.2967
-3.0060 GAMBINO -0.2583
-3.0060 GATES -0.2583
-3.0060 GOES -0.3002
-3.0060 GOOD -0.3002
-3.0060 HIGH -0.2583
-3.0060 HOLE -0.3002
-3.0060 HOME -0.2583
-3.0060 HOUSE -0.2993
-2.3071 I -0.2989
-3.0060 I'LL -0.3002
-3.0060 IF -0.2967
-3.0060 IN -0.3006
-3.0060 INDICATES -0.3006
-2.4040 IS -0.2950
-2.7050 IT -0.2578
-3.0060 JAM -0.2583
-2.7050 JOJI -0.3002
-3.0060 JORJA -0.3006
-3.0060 JUVENTUDE -0.3006
-3.0060 KNOW -0.2583
-3.0060 KNOW? -0.2583
-3.0060 LET -0.2967
-3.0060 LIGHT -0.3006
-2.7050 LIGHTS -0.2972
-3.0060 LIKE -0.2972
-3.0060 LIKED -0.3006
-3.0060 LINDA -0.3006
-3.0060 LOOK -0.3006
-3.0060 MAD -0.3006
-3.0060 MAKE -0.3006
-2.7050 MARDY -0.3002
-3.0060 MARTINI -0.2583
-2.1609 ME -0.2531
-3.0060 METROS -0.3006
-3.0060 MINE? -0.2583
-2.7050 MISTAKES -0.2583
-3.0060 MONKEY -0.2583
-3.0060 MONKEYS -0.2583
-3.0060 MORE -0.3006
-3.0060 MORTAIS -0.2583
-3.0060 MOUTAIN -0.3002
-3.0060 MY -0.3006
-2.7050 NEXT -0.2569
-3.0060 NOT -0.3006
-2.7050 NOTHING -0.2997
-2.7050 OF -0.2997
-3.0060 OH -0.3002
-3.0060 OLD -0.3006
-2.7050 ON -0.2963
-3.0060 ONE -0.2997
-3.0060 ONES -0.3006
-2.7050 ONLY -0.3002
-3.0060 OUT -0.3002
-3.0060 PARADE -0.2583
-2.7050 PAUSE -0.2564
-3.0060 PEARL -0.3006
-3.0060 PERHAPS -0.3006
-3.0060 PICKER -0.2583
-1.5589 PLAY -0.2305
-2.7050 PLAYING -0.2583
-2.7050 PREVIOUS -0.2569
-3.0060 PROBABLY -0.3006
-3.0060 R -0.3006
-3.0060 RE -0.3006
-3.0060 RED -0.3006
-3.0060 REDBONE -0.2583
-3.0060 RESUME -0.2583
-3.0060 RIGHT -0.2583
-3.0060 RIOT -0.3006
-3.0060 RISE -0.3006
-3.0060 RITZ -0.3006
-3.0060 ROAD -0.2583
-3.0060 ROADSICK -0.2583
-3.0060 ROMANCE -0.2583
-3.0060 RUBBLE -0.2583
-3.0060 SAN -0.3006
-2.7050 SEARCH -0.2550
-3.0060 SECURED -0.2583
-2.7050 SEE -0.2954
-3.0060 SEREIA -0.2583
-3.0060 SHOES -0.2583
-3.0060 SKIP -0.2997
-3.0060 SLEEP -0.2583
-3.0060 SMITH -0.2583
-3.0060 SNAP -0.3006
-3.0060 SNUFF -0.2583
-3.0060 SOCIETY -0.2583
-3.0060 SOMEDAY -0.2583
-2.4040 SONG -0.2550
-3.0060 SONGS -0.2583
-3.0060 SONICA -0.2583
-3.0060 SOUNDGARDEN -0.2583
-3.0060 SOUNDS -0.2583
-3.0060 STARING -0.3006
-3.0060 STILL -0.3006
-3.0060 STONE -0.2583
-2.7050 STOP -0.2564
-3.0060 STRAIGHT -0.3002
-3.0060 STRONG -0.3006
-3.0060 SUBURBS -0.2583
-2.7050 SUN -0.2980
-3.0060 TAKE -0.2967
-3.0060 TALES -0.3002
-3.0060 TEDDY -0.3006
-3.0060 TEENAGE -0.3006
-3.0060 THAN -0.2972
-2.0060 THE -0.2959
-3.0060 THERE -0.3006
-3.0060 THING -0.2583
-3.0060 THIS -0.3006
-3.0060 THOUSAND -0.3006
-3.0060 TO -0.2967
-2.5289 TRACK -0.2583
-3.0060 U -0.3006
-3.0060 UP -0.2583
-3.0060 VAMPIRES -0.2993
-3.0060 VAN -0.2583
-3.0060 VERDES -0.3006
-3.0060 VEW -0.3002
-3.0060 WAKE -0.3006
-2.7050 WANNA -0.2997
-3.0060 WANT -0.3002
-3.0060 WASTELANDS -0.2583
-3.0060 WE -0.3006
-2.7050 WERE -0.3002
-3.0060 WET -0.3006
-3.0060 WHAT -0.2993
-2.7050 WHEN -0.2924
-3.0060 WHO -0.3006
-3.0060 WHY -0.3002
-3.0060 WILL -0.3006
-3.0060 WROTE -0.2972
-3.0060 YEAH -0.3006
-3.0060 YELLOW -0.3006
-2.0060 YOU -0.2531
-3.0060 YOURS -0.2583
-3.0060 YOURSELF -0.2985

\2-grams:
-0.3010 40 </s> -0.3010
-0.3010 505 </s> -0.3010
-2.2788 <s> 505 0.0000
-2.2788 <s> A -0.2762
-2.2788 <s> ALIVE 0.0000
-2.2788 <s> AMIGOS 0.0000
-2.2788 <s> ARABELLA 0.0000
-1.5798 <s> ARTIST -0.0669
-2.2788 <s> BACKWARDS 0.0000
-2.2788 <s> BE -0.1761
-1.9777 <s> BLACK 0.0000
-2.2788 <s> BLUE 0.0000
-2.2788 <s> BOT 0.0000
-2.2788 <s> BULLS 0.0000
-2.2788 <s> BY -0.2632
-2.2788 <s> CONTINUE 0.0000
-2.2788 <s> CURRENTLY 0.0000
-1.9777 <s> DO 0.0000
-2.2788 <s> FIVE -0.1761
-2.2788 <s> FROM 0.0000
-2.2788 <s> I -0.2553
-2.2788 <s> IF 0.0000
-1.9777 <s> JOJI 0.0000
-2.2788 <s> JUVENTUDE 0.0000
-2.2788 <s> LIKE 0.0000
-2.2788 <s> LIKED 0.0000
-2.2788 <s> MAD 0.0000
-2.2788 <s> MARDY 0.0000
-2.2788 <s> MORE 0.0000
-2.2788 <s> MOUTAIN 0.0000
-1.9777 <s> NEXT 0.0000
-2.2788 <s> NOTHING 0.0000
-2.2788 <s> OLD 0.0000
-2.2788 <s> ONE 0.0000
-2.2788 <s> ONLY -0.1761
-1.9777 <s> PAUSE 0.0000
-2.2788 <s> PEARL 0.0000
-0.8316 <s> PLAY -0.0000
-1.9777 <s> PREVIOUS 0.0000
-2.2788 <s> R 0.0000
-2.2788 <s> REDBONE 0.0000
-2.2788 <s> RESUME 0.0000
-1.9777 <s> SEARCH 0.0000
-2.2788 <s> SKIP 0.0000
-2.2788 <s> SLEEP 0.0000
-2.2788 <s> SNUFF 0.0000
-2.2788 <s> SOCIETY 0.0000
-2.2788 <s> SOMEDAY 0.0000
-1.9777 <s> STOP 0.0000
-1.9777 <s> THE -0.2553
-2.2788 <s> THIS 0.0000
-2.2788 <s> VERDES 0.0000
-2.2788 <s> WAKE 0.0000
-2.2788 <s> WE 0.0000
-2.2788 <s> WET 0.0000
-2.2788 <s> WHAT 0.0000
-2.2788 <s> WHEN -0.1761
-1.2553 A BIT 0.0000
-1.2553 A CERTAIN 0.0000
-1.2553 A CIRCUS 0.0000
-0.9542 A FAVOUR 0.0000
-0.9542 A SONG -0.1761
-1.2553 A STONE 0.0000
-1.2553 A THOUSAND 0.0000
-0.3010 ABOUT YOU -0.2788
-0.3010 ADOLESCENT </s> -0.3010
-0.3010 AFTERNOON </s> -0.3010
-0.3010 AGAINST </s> -0.3010
-0.3010 ALIVE </s> -0.3010
-0.3010 ALL </s> -0.3010
-0.3010 ALWAYS LET 0.0000
-0.3010 AMIGOS MORTAIS 0.0000
-0.3010 ANOS </s> -0.3010
-0.3010 ARABELLA </s> -0.3010
-0.3010 ARCADE FIRE 0.0000
-0.6021 ARCTIC MONKEY 0.0000
-0.6021 ARCTIC MONKEYS 0.0000
-0.3010 ARE SECURED 0.0000
-1.0792 ARTIST </s> -0.3010
-1.0792 ARTIST ARCADE 0.0000
-1.0792 ARTIST ARCTIC -0.1761
-1.0792 ARTIST CHILDISH 0.0000
-1.0792 ARTIST LINDA 0.0000
-1.0792 ARTIST RISE 0.0000
-0.6021 AT ME -0.1963
-0.6021 AT MY 0.0000
-0.3010 AUDIOSLAVE </s> -0.3010
-0.3010 BACKWARDS </s> -0.3010
-0.3010 BAD THING 0.0000
-0.3010 BALACLAVA </s> -0.3010
-0.6021 BE YOURS 0.0000
-0.6021 BE YOURSELF 0.0000
-0.3010 BET YOU -0.2788
-0.3010 BEWARE </s> -0.3010
-0.3010 BIT STRONG 0.0000
-0.6021 BLACK </s> -0.3010
-0.6021 BLACK HOLE 0.0000
-0.3010 BLUE LIGHTS -0.1761
-0.3010 BOT </s> -0.3010
-0.3010 BRIANSTORM </s> -0.3010
-0.3010 BRICKS </s> -0.3010
-0.3010 BULLS ON -0.1761
-0.3010 BUM </s> -0.3010
-0.4771 BUT MISTAKES 0.0000
-0.7782 BUT YOU -0.2553
-0.3010 BUT... </s> -0.3010
-1.0792 BY </s> -0.3010
-1.0792 BY ARCTIC -0.1761
-1.0792 BY ARTIST -0.2632
-1.0792 BY AUDIOSLAVE 0.0000
-1.0792 BY JORJA 0.0000
-1.0792 BY SOUNDGARDEN 0.0000
-0.3010 CALL ME -0.2688
-0.3010 CEM METROS 0.0000
-0.3010 CERTAIN ROMANCE 0.0000
-0.3010 CHILDISH GAMBINO 0.0000
-0.3010 CIRCUS </s> -0.3010
-0.3010 CONTINUE </s> -0.3010
-0.3010 COULDN'T SEE -0.1761
-0.3010 CURRENTLY PLAYING 0.0000
-0.6021 D IS -0.2430
-0.6021 D YOU -0.2788
-0.3010 DANCEFLOOR </s> -0.3010
-0.3010 DANCING SHOES 0.0000
-0.3010 DANGEROUS </s> -0.3010
-0.7782 DO I -0.2041
-0.4771 DO ME -0.1963
-0.3010 DOORS ARE 0.0000
-0.3010 DOWN </s> -0.3010
-0.3010 DREAMZ </s> -0.3010
-0.3010 ENEMIES </s> -0.3010
-0.3010 FAKE TALES 0.0000
-0.6021 FAVOUR </s> -0.3010
-0.6021 FAVOUR BY -0.2632
-0.3010 FIRE </s> -0.3010
-0.3010 FIRESIDE </s> -0.3010
-0.6021 FIVE </s> -0.3010
-0.6021 FIVE OH 0.0000
-0.3010 FLUORESCENT ADOLESCENT 0.0000
-0.7782 FOR DANGEROUS 0.0000
-0.4771 FOR THE -0.2553
-0.3010 FRANCISCO </s> -0.3010
-0.3010 FRIENDS NOT 0.0000
-0.3010 FROM THE -0.2553
-0.3010 GAMBINO </s> -0.3010
-0.3010 GATES </s> -0.3010
-0.3010 GOES DOWN 0.0000
-0.3010 GOOD ON -0.1761
-0.3010 HIGH </s> -0.3010
-0.3010 HOLE SUN -0.1761
-0.3010 HOME </s> -0.3010
-0.3010 HOUSE IS -0.1761
-1.0000 I BET 0.0000
-0.6990 I WANNA 0.0000
-1.0000 I WANT 0.0000
-1.0000 I WILL 0.0000
-0.3010 I'LL SEE -0.1761
-0.3010 IF YOU -0.2553
-0.3010 IN 40 0.0000
-0.3010 INDICATES DOORS 0.0000
-0.6021 IS A -0.2499
-0.9031 IS FOR -0.2218
-0.9031 IS PLAYING 0.0000
-0.6021 IT </s> -0.3010
-0.6021 IT ALL 0.0000
-0.3010 JAM </s> -0.3010
-0.6021 JOJI I'LL 0.0000
-0.6021 JOJI YEAH 0.0000
-0.3010 JORJA SMITH 0.0000
-0.3010 JUVENTUDE SONICA 0.0000
-0.3010 KNOW </s> -0.3010
-0.3010 KNOW? </s> -0.3010
-0.3010 LET YOU -0.2788
-0.3010 LIGHT INDICATES 0.0000
-0.6021 LIGHTS BUT -0.2218
-0.6021 LIGHTS BY -0.2632
-0.3010 LIKE A -0.2762
-0.3010 LIKED SONGS 0.0000
-0.3010 LINDA MARTINI 0.0000
-0.3010 LOOK GOOD 0.0000
-0.3010 MAD SOUNDS 0.0000
-0.3010 MAKE FRIENDS 0.0000
-0.3010 MARDY BUM 0.0000
-0.3010 MARTINI </s> -0.3010
-0.6690 ME </s> -0.3010
-0.6690 ME A -0.1919
-1.1461 ME WHEN -0.1761
-0.3010 METROS SEREIA 0.0000
-0.3010 MINE? </s> -0.3010
-0.3010 MISTAKES </s> -0.3010
-0.3010 MONKEY </s> -0.3010
-0.3010 MONKEYS </s> -0.3010
-0.3010 MORE THAN 0.0000
-0.3010 MORTAIS </s> -0.3010
-0.3010 MOUTAIN AT -0.1761
-0.3010 MY GATES 0.0000
-0.6021 NEXT </s> -0.3010
-0.6021 NEXT TRACK 0.0000
-0.3010 NOT ENEMIES 0.0000
-0.3010 NOTHING BUT -0.1249
-0.6021 OF IT -0.1761
-0.6021 OF SAN 0.0000
-0.3010 OH FIVE -0.1761
-0.3010 OLD YELLOW 0.0000
-0.6021 ON PARADE 0.0000
-0.6021 ON THE -0.2788
-0.3010 ONE FOR -0.1249
-0.3010 ONES WHO 0.0000
-0.6021 ONLY CALL 0.0000
-0.6021 ONLY ONES 0.0000
-0.3010 OUT OF -0.1761
-0.3010 PARADE </s> -0.3010
-0.6021 PAUSE </s> -0.3010
-0.6021 PAUSE SONG -0.1761
-0.3010 PEARL JAM 0.0000
-0.3010 PERHAPS VAMPIRES 0.0000
-0.3010 PICKER </s> -0.3010
-1.7482 PLAY </s> -0.3010
-1.7482 PLAY BALACLAVA 0.0000
-1.7482 PLAY BRIANSTORM 0.0000
-1.7482 PLAY CEM 0.0000
-1.7482 PLAY D -0.1761
-1.7482 PLAY DANCING 0.0000
-1.7482 PLAY DO -0.1249
-1.7482 PLAY FAKE 0.0000
-1.7482 PLAY FIRESIDE 0.0000
-1.7482 PLAY FLUORESCENT 0.0000
-1.2711 PLAY I -0.0792
-1.7482 PLAY MARDY 0.0000
-1.4472 PLAY ME -0.0580
-1.7482 PLAY NOTHING 0.0000
-1.7482 PLAY PERHAPS 0.0000
-1.7482 PLAY RED 0.0000
-1.7482 PLAY RIOT 0.0000
-1.7482 PLAY ROADSICK 0.0000
-1.7482 PLAY SNAP 0.0000
-1.7482 PLAY STILL 0.0000
-1.7482 PLAY TEDDY 0.0000
-1.7482 PLAY TEENAGE 0.0000
-1.7482 PLAY THE -0.2788
-1.7482 PLAY WHY 0.0000
-1.7482 PLAY YOU -0.2788
-0.3010 PLAYING </s> -0.3010
-0.6021 PREVIOUS </s> -0.3010
-0.6021 PREVIOUS TRACK 0.0000
-0.3010 PROBABLY COULDN'T 0.0000
-0.3010 R U 0.0000
-0.3010 RE HIGH 0.0000
-0.3010 RED LIGHT 0.0000
-0.3010 REDBONE </s> -0.3010
-0.3010 RESUME </s> -0.3010
-0.3010 RIGHT </s> -0.3010
-0.3010 RIOT VAN 0.0000
-0.3010 RISE AGAINST 0.0000
-0.3010 RITZ TO 0.0000
-0.3010 ROAD </s> -0.3010
-0.3010 ROADSICK </s> -0.3010
-0.3010 ROMANCE </s> -0.3010
-0.3010 RUBBLE </s> -0.3010
-0.3010 SAN FRANCISCO 0.0000
-0.6021 SEARCH </s> -0.3010
-0.6021 SEARCH ME -0.1963
-0.3010 SECURED </s> -0.3010
-0.6021 SEE FOR -0.1249
-0.6021 SEE YOU -0.2788
-0.3010 SEREIA </s> -0.3010
-0.3010 SHOES </s> -0.3010
-0.3010 SKIP TRACK 0.0000
-0.3010 SLEEP </s> -0.3010
-0.3010 SMITH </s> -0.3010
-0.3010 SNAP OUT 0.0000
-0.3010 SNUFF </s> -0.3010
-0.3010 SOCIETY </s> -0.3010
-0.3010 SOMEDAY </s> -0.3010
-0.6021 SONG </s> -0.3010
-0.9031 SONG ABOUT 0.0000
-0.9031 SONG BY -0.2632
-0.3010 SONGS </s> -0.3010
-0.3010 SONICA </s> -0.3010
-0.3010 SOUNDGARDEN </s> -0.3010
-0.3010 SOUNDS </s> -0.3010
-0.3010 STARING STRAIGHT 0.0000
-0.3010 STILL TAKE 0.0000
-0.3010 STONE </s> -0.3010
-0.6021 STOP </s> -0.3010
-0.6021 STOP SONG -0.1761
-0.3010 STRAIGHT AT -0.1761
-0.3010 STRONG BUT... 0.0000
-0.3010 SUBURBS </s> -0.3010
-0.6021 SUN BY -0.2632
-0.6021 SUN GOES 0.0000
-0.3010 TAKE YOU -0.2788
-0.3010 TALES OF -0.1761
-0.3010 TEDDY PICKER 0.0000
-0.3010 TEENAGE WASTELANDS 0.0000
-0.3010 THAN A -0.2762
-1.3010 THE AFTERNOON 0.0000
-1.3010 THE BAD 0.0000
-1.3010 THE DANCEFLOOR 0.0000
-1.3010 THE LIGHTS -0.1761
-1.3010 THE RITZ 0.0000
-1.3010 THE ROAD 0.0000
-1.3010 THE RUBBLE 0.0000
-1.3010 THE SUBURBS 0.0000
-1.3010 THE SUN -0.1761
-1.3010 THE VEW 0.0000
-0.3010 THERE BEWARE 0.0000
-0.3010 THING </s> -0.3010
-0.3010 THIS HOUSE 0.0000
-0.3010 THOUSAND MAKE 0.0000
-0.3010 TO THE -0.2788
-0.3010 TRACK </s> -0.3010
-0.3010 U MINE? 0.0000
-0.3010 UP </s> -0.3010
-0.3010 VAMPIRES IS -0.1761
-0.3010 VAN </s> -0.3010
-0.3010 VERDES ANOS 0.0000
-0.3010 VEW FROM 0.0000
-0.3010 WAKE UP 0.0000
-0.6021 WANNA BE -0.1761
-0.6021 WANNA KNOW? 0.0000
-0.3010 WANT IT -0.1761
-0.3010 WASTELANDS </s> -0.3010
-0.3010 WE WROTE 0.0000
-0.6021 WERE STARING 0.0000
-0.6021 WERE THERE 0.0000
-0.3010 WET DREAMZ 0.0000
-0.3010 WHAT IS -0.2430
-0.6021 WHEN THE -0.2788
-0.6021 WHEN YOU -0.2788
-0.3010 WHO KNOW 0.0000
-0.3010 WHY D -0.1761
-0.3010 WILL ALWAYS 0.0000
-0.3010 WROTE A -0.2499
-0.3010 YEAH RIGHT 0.0000
-0.3010 YELLOW BRICKS 0.0000
-1.3010 YOU </s> -0.3010
-1.3010 YOU DOWN 0.0000
-1.3010 YOU HOME 0.0000
-1.3010 YOU IN 0.0000
-1.3010 YOU LOOK 0.0000
-1.3010 YOU ONLY -0.1761
-1.3010 YOU PROBABLY 0.0000
-1.3010 YOU RE 0.0000
-1.0000 YOU WERE 0.0000
-0.3010 YOURS </s> -0.3010
-0.3010 YOURSELF BY -0.2632

\3-grams:
-0.3010 <s> 505 </s>
-0.3010 <s> A CERTAIN
-0.3010 <s> ALIVE </s>
-0.3010 <s> AMIGOS MORTAIS
-0.3010 <s> ARABELLA </s>
-1.0000 <s> ARTIST ARCADE
-1.0000 <s> ARTIST ARCTIC
-1.0000 <s> ARTIST CHILDISH
-1.0000 <s> ARTIST LINDA
-1.0000 <s> ARTIST RISE
-0.3010 <s> BACKWARDS </s>
-0.3010 <s> BE YOURSELF
-0.6021 <s> BLACK </s>
-0.6021 <s> BLACK HOLE
-0.3010 <s> BLUE LIGHTS
-0.3010 <s> BOT </s>
-0.3010 <s> BULLS ON
-0.3010 <s> BY </s>
-0.3010 <s> CONTINUE </s>
-0.3010 <s> CURRENTLY PLAYING
-0.6021 <s> DO I
-0.6021 <s> DO ME
-0.3010 <s> FIVE OH
-0.3010 <s> FROM THE
-0.3010 <s> I WANT
-0.3010 <s> IF YOU
-0.6021 <s> JOJI I'LL
-0.6021 <s> JOJI YEAH
-0.3010 <s> JUVENTUDE SONICA
-0.3010 <s> LIKE A
-0.3010 <s> LIKED SONGS
-0.3010 <s> MAD SOUNDS
-0.3010 <s> MARDY BUM
-0.3010 <s> MORE THAN
-0.3010 <s> MOUTAIN AT
-0.6021 <s> NEXT </s>
-0.6021 <s> NEXT TRACK
-0.3010 <s> NOTHING BUT
-0.3010 <s> OLD YELLOW
-0.3010 <s> ONE FOR
-0.3010 <s> ONLY ONES
-0.6021 <s> PAUSE </s>
-0.6021 <s> PAUSE SONG
-0.3010 <s> PEARL JAM
-1.7482 <s> PLAY </s>
-1.7482 <s> PLAY BALACLAVA
-1.7482 <s> PLAY BRIANSTORM
-1.7482 <s> PLAY CEM
-1.7482 <s> PLAY D
-1.7482 <s> PLAY DANCING
-1.7482 <s> PLAY DO
-1.7482 <s> PLAY FAKE
-1.7482 <s> PLAY FIRESIDE
-1.7482 <s> PLAY FLUORESCENT
-1.2711 <s> PLAY I
-1.7482 <s> PLAY MARDY
-1.4472 <s> PLAY ME
-1.7482 <s> PLAY NOTHING
-1.7482 <s> PLAY PERHAPS
-1.7482 <s> PLAY RED
-1.7482 <s> PLAY RIOT
-1.7482 <s> PLAY ROADSICK
-1.7482 <s> PLAY SNAP
-1.7482 <s> PLAY STILL
-1.7482 <s> PLAY TEDDY
-1.7482 <s> PLAY TEENAGE
-1.7482 <s> PLAY THE
-1.7482 <s> PLAY WHY
-1.7482 <s> PLAY YOU
-0.6021 <s> PREVIOUS </s>
-0.6021 <s> PREVIOUS TRACK
-0.3010 <s> R U
-0.3010 <s> REDBONE </s>
-0.3010 <s> RESUME </s>
-0.6021 <s> SEARCH </s>
-0.6021 <s> SEARCH ME
-0.3010 <s> SKIP TRACK
-0.3010 <s> SLEEP </s>
-0.3010 <s> SNUFF </s>
-0.3010 <s> SOCIETY </s>
-0.3010 <s> SOMEDAY </s>
-0.6021 <s> STOP </s>
-0.6021 <s> STOP SONG
-0.6021 <s> THE BAD
-0.6021 <s> THE SUBURBS
-0.3010 <s> THIS HOUSE
-0.3010 <s> VERDES ANOS
-0.3010 <s> WAKE UP
-0.3010 <s> WE WROTE
-0.3010 <s> WET DREAMZ
-0.3010 <s> WHAT IS
-0.3010 <s> WHEN THE
-0.3010 A BIT STRONG
-0.3010 A CERTAIN ROMANCE
-0.3010 A CIRCUS </s>
-0.6021 A FAVOUR </s>
-0.6021 A FAVOUR BY
-0.6021 A SONG ABOUT
-0.6021 A SONG BY
-0.3010 A STONE </s>
-0.3010 A THOUSAND MAKE
-0.3010 ABOUT YOU </s>
-0.3010 ALWAYS LET YOU
-0.3010 AMIGOS MORTAIS </s>
-0.3010 ARCADE FIRE </s>
-0.3010 ARCTIC MONKEY </s>
-0.3010 ARCTIC MONKEYS </s>
-0.3010 ARE SECURED </s>
-0.3010 ARTIST ARCADE FIRE
-0.3010 ARTIST ARCTIC MONKEYS
-0.3010 ARTIST CHILDISH GAMBINO
-0.3010 ARTIST LINDA MARTINI
-0.3010 ARTIST RISE AGAINST
-0.3010 AT ME </s>
-0.3010 AT MY GATES
-0.3010 BAD THING </s>
-0.3010 BE YOURS </s>
-0.3010 BE YOURSELF BY
-0.3010 BET YOU LOOK
-0.3010 BIT STRONG BUT...
-0.3010 BLACK HOLE SUN
-0.3010 BLUE LIGHTS BY
-0.3010 BULLS ON PARADE
-0.3010 BUT MISTAKES </s>
-0.3010 BUT YOU WERE
-0.3010 BY ARCTIC MONKEY
-0.3010 BY ARTIST </s>
-0.3010 BY AUDIOSLAVE </s>
-0.3010 BY JORJA SMITH
-0.3010 BY SOUNDGARDEN </s>
-0.3010 CALL ME WHEN
-0.3010 CEM METROS SEREIA
-0.3010 CERTAIN ROMANCE </s>
-0.3010 CHILDISH GAMBINO </s>
-0.3010 COULDN'T SEE FOR
-0.3010 CURRENTLY PLAYING </s>
-0.3010 D IS FOR
-0.3010 D YOU ONLY
-0.3010 DANCING SHOES </s>
-0.3010 DO I WANNA
-0.3010 DO ME A
-0.3010 DOORS ARE SECURED
-0.3010 FAKE TALES OF
-0.3010 FAVOUR BY ARCTIC
-0.3010 FIVE OH FIVE
-0.3010 FLUORESCENT ADOLESCENT </s>
-0.3010 FOR DANGEROUS </s>
-0.6021 FOR THE LIGHTS
-0.6021 FOR THE ROAD
-0.3010 FRIENDS NOT ENEMIES
-0.6021 FROM THE AFTERNOON
-0.6021 FROM THE RITZ
-0.3010 GOES DOWN </s>
-0.3010 GOOD ON THE
-0.3010 HOLE SUN BY
-0.3010 HOUSE IS A
-0.3010 I BET YOU
-0.6021 I WANNA BE
-0.6021 I WANNA KNOW?
-0.3010 I WANT IT
-0.3010 I WILL ALWAYS
-0.3010 I'LL SEE YOU
-0.3010 IF YOU WERE
-0.3010 IN 40 </s>
-0.3010 INDICATES DOORS ARE
-0.6021 IS A BIT
-0.6021 IS A CIRCUS
-0.3010 IS FOR DANGEROUS
-0.3010 IS PLAYING </s>
-0.3010 IT ALL </s>
-0.3010 JOJI I'LL SEE
-0.3010 JOJI YEAH RIGHT
-0.3010 JORJA SMITH </s>
-0.3010 JUVENTUDE SONICA </s>
-0.3010 LET YOU DOWN
-0.3010 LIGHT INDICATES DOORS
-0.3010 LIGHTS BUT YOU
-0.3010 LIGHTS BY JORJA
-0.3010 LIKE A STONE
-0.3010 LIKED SONGS </s>
-0.3010 LINDA MARTINI </s>
-0.3010 LOOK GOOD ON
-0.3010 MAD SOUNDS </s>
-0.3010 MAKE FRIENDS NOT
-0.3010 MARDY BUM </s>
-0.4771 ME A FAVOUR
-0.7782 ME A SONG
-0.3010 ME WHEN YOU
-0.3010 METROS SEREIA </s>
-0.3010 MORE THAN A
-0.3010 MOUTAIN AT MY
-0.3010 MY GATES </s>
-0.3010 NEXT TRACK </s>
-0.3010 NOT ENEMIES </s>
-0.3010 NOTHING BUT MISTAKES
-0.3010 OF IT </s>
-0.3010 OF SAN FRANCISCO
-0.3010 OH FIVE </s>
-0.3010 OLD YELLOW BRICKS
-0.3010 ON PARADE </s>
-0.3010 ON THE DANCEFLOOR
-0.3010 ONE FOR THE
-0.3010 ONES WHO KNOW
-0.3010 ONLY CALL ME
-0.3010 ONLY ONES WHO
-0.3010 OUT OF IT
-0.3010 PAUSE SONG </s>
-0.3010 PEARL JAM </s>
-0.3010 PERHAPS VAMPIRES IS
-0.3010 PLAY BALACLAVA </s>
-0.3010 PLAY BRIANSTORM </s>
-0.3010 PLAY CEM METROS
-0.3010 PLAY D IS
-0.3010 PLAY DANCING SHOES
-0.3010 PLAY DO ME
-0.3010 PLAY FAKE TALES
-0.3010 PLAY FIRESIDE </s>
-0.3010 PLAY FLUORESCENT ADOLESCENT
-0.7782 PLAY I BET
-0.7782 PLAY I WANNA
-0.7782 PLAY I WILL
-0.3010 PLAY MARDY BUM
-0.6021 PLAY ME </s>
-0.6021 PLAY ME A
-0.3010 PLAY NOTHING BUT
-0.3010 PLAY PERHAPS VAMPIRES
-0.3010 PLAY RED LIGHT
-0.3010 PLAY RIOT VAN
-0.3010 PLAY ROADSICK </s>
-0.3010 PLAY SNAP OUT
-0.3010 PLAY STILL TAKE
-0.3010 PLAY TEDDY PICKER
-0.3010 PLAY TEENAGE WASTELANDS
-0.3010 PLAY THE VEW
-0.3010 PLAY WHY D
-0.3010 PLAY YOU PROBABLY
-0.3010 PREVIOUS TRACK </s>
-0.3010 PROBABLY COULDN'T SEE
-0.3010 R U MINE?
-0.3010 RE HIGH </s>
-0.3010 RED LIGHT INDICATES
-0.3010 RIOT VAN </s>
-0.3010 RISE AGAINST </s>
-0.3010 RITZ TO THE
-0.3010 SAN FRANCISCO </s>
-0.3010 SEARCH ME </s>
-0.3010 SEE FOR THE
-0.3010 SEE YOU IN
-0.3010 SKIP TRACK </s>
-0.3010 SNAP OUT OF
-0.3010 SONG ABOUT YOU
-0.3010 SONG BY ARTIST
-0.3010 STARING STRAIGHT AT
-0.3010 STILL TAKE YOU
-0.3010 STOP SONG </s>
-0.3010 STRAIGHT AT ME
-0.3010 STRONG BUT... </s>
-0.3010 SUN BY SOUNDGARDEN
-0.3010 SUN GOES DOWN
-0.3010 TAKE YOU HOME
-0.3010 TALES OF SAN
-0.3010 TEDDY PICKER </s>
-0.3010 TEENAGE WASTELANDS </s>
-0.3010 THAN A THOUSAND
-0.3010 THE AFTERNOON </s>
-0.3010 THE BAD THING
-0.3010 THE DANCEFLOOR </s>
-0.3010 THE LIGHTS BUT
-0.3010 THE RITZ TO
-0.3010 THE ROAD </s>
-0.3010 THE RUBBLE </s>
-0.3010 THE SUBURBS </s>
-0.3010 THE SUN GOES
-0.3010 THE VEW FROM
-0.3010 THERE BEWARE </s>
-0.3010 THIS HOUSE IS
-0.3010 THOUSAND MAKE FRIENDS
-0.3010 TO THE RUBBLE
-0.3010 U MINE? </s>
-0.3010 VAMPIRES IS A
-0.3010 VERDES ANOS </s>
-0.3010 VEW FROM THE
-0.3010 WAKE UP </s>
-0.3010 WANNA BE YOURS
-0.3010 WANNA KNOW? </s>
-0.3010 WANT IT ALL
-0.3010 WE WROTE A
-0.3010 WERE STARING STRAIGHT
-0.3010 WERE THERE BEWARE
-0.3010 WET DREAMZ </s>
-0.3010 WHAT IS PLAYING
-0.3010 WHEN THE SUN
-0.3010 WHEN YOU RE
-0.3010 WHO KNOW </s>
-0.3010 WHY D YOU
-0.3010 WILL ALWAYS LET
-0.3010 WROTE A SONG
-0.3010 YEAH RIGHT </s>
-0.3010 YELLOW BRICKS </s>
-0.3010 YOU DOWN </s>
-0.3010 YOU HOME </s>
-0.3010 YOU IN 40
-0.3010 YOU LOOK GOOD
-0.3010 YOU ONLY CALL
-0.3010 YOU PROBABLY COULDN'T
-0.3010 YOU RE HIGH
-0.6021 YOU WERE STARING
-0.6021 YOU WERE THERE
-0.3010 YOURSELF BY AUDIOSLAVE

\end\
